<?xml version="1.0"?>
<opencv_storage>
<stage16>
  <maxWeakCount>89</maxWeakCount>
  <stageThreshold>-9.5644879341125488e-01</stageThreshold>
  <weakClassifiers>
    <_>
      <internalNodes>
        0 -1 60393 9.4630066305398941e-03</internalNodes>
      <leafValues>
        -2.9482072219252586e-02 5.5555558204650879e-01</leafValues></_>
    <_>
      <internalNodes>
        0 -1 10162 -5.5141292512416840e-02</internalNodes>
      <leafValues>
        3.1594121456146240e-01 -1.0887520760297775e-01</leafValues></_>
    <_>
      <internalNodes>
        0 -1 89770 3.6630756221711636e-03</internalNodes>
      <leafValues>
        4.2910114862024784e-03 -7.5691032409667969e-01</leafValues></_>
    <_>
      <internalNodes>
        0 -1 159257 2.1011695265769958e-02</internalNodes>
      <leafValues>
        -8.5709683597087860e-02 3.0875584483146667e-01</leafValues></_>
    <_>
      <internalNodes>
        0 -1 155197 -1.6408618539571762e-03</internalNodes>
      <leafValues>
        -5.3085994720458984e-01 3.5530697554349899e-02</leafValues></_>
    <_>
      <internalNodes>
        0 -1 56100 6.3796535134315491e-02</internalNodes>
      <leafValues>
        -7.4364118278026581e-02 2.9222083091735840e-01</leafValues></_>
    <_>
      <internalNodes>
        0 -1 22412 -1.0932894051074982e-01</internalNodes>
      <leafValues>
        7.3584806919097900e-01 -1.7162045463919640e-02</leafValues></_>
    <_>
      <internalNodes>
        0 -1 755 9.4980737194418907e-03</internalNodes>
      <leafValues>
        6.1685085296630859e-02 -3.6632120609283447e-01</leafValues></_>
    <_>
      <internalNodes>
        0 -1 38061 1.6370636876672506e-03</internalNodes>
      <leafValues>
        2.3604568094015121e-02 -4.0876132249832153e-01</leafValues></_>
    <_>
      <internalNodes>
        0 -1 106926 -8.1012686714529991e-03</internalNodes>
      <leafValues>
        2.3182700574398041e-01 -7.2728909552097321e-02</leafValues></_>
    <_>
      <internalNodes>
        0 -1 83475 -3.2176405191421509e-02</internalNodes>
      <leafValues>
        2.3493854701519012e-01 -7.9089112579822540e-02</leafValues></_>
    <_>
      <internalNodes>
        0 -1 9887 -1.4192295074462891e-01</internalNodes>
      <leafValues>
        -3.2684129476547241e-01 4.5962687581777573e-02</leafValues></_>
    <_>
      <internalNodes>
        0 -1 107780 -2.5186173617839813e-02</internalNodes>
      <leafValues>
        7.5387811660766602e-01 -1.1569344438612461e-02</leafValues></_>
    <_>
      <internalNodes>
        0 -1 12556 -5.4306252859532833e-03</internalNodes>
      <leafValues>
        -3.7580412626266479e-01 5.4635491222143173e-02</leafValues></_>
    <_>
      <internalNodes>
        0 -1 11145 -5.6083267554640770e-03</internalNodes>
      <leafValues>
        1.5835969150066376e-01 -1.1493492871522903e-01</leafValues></_>
    <_>
      <internalNodes>
        0 -1 36974 6.4501713495701551e-04</internalNodes>
      <leafValues>
        -1.0240650177001953e-01 1.7747384309768677e-01</leafValues></_>
    <_>
      <internalNodes>
        0 -1 113575 -7.1192141622304916e-03</internalNodes>
      <leafValues>
        4.5056441426277161e-01 -3.6235641688108444e-02</leafValues></_>
    <_>
      <internalNodes>
        0 -1 80404 -1.0894314385950565e-02</internalNodes>
      <leafValues>
        1.2479714304208755e-01 -1.4149878919124603e-01</leafValues></_>
    <_>
      <internalNodes>
        0 -1 36584 -1.6565166413784027e-01</internalNodes>
      <leafValues>
        6.3024824857711792e-01 -2.0242067053914070e-02</leafValues></_>
    <_>
      <internalNodes>
        0 -1 162037 -2.7844374999403954e-03</internalNodes>
      <leafValues>
        -5.4069209098815918e-01 3.4281712025403976e-02</leafValues></_>
    <_>
      <internalNodes>
        0 -1 126660 -3.5360833862796426e-04</internalNodes>
      <leafValues>
        1.3381576538085938e-01 -1.3104996085166931e-01</leafValues></_>
    <_>
      <internalNodes>
        0 -1 88019 2.4786326102912426e-03</internalNodes>
      <leafValues>
        -9.0510912239551544e-02 2.1172980964183807e-01</leafValues></_>
    <_>
      <internalNodes>
        0 -1 139154 -5.1023170817643404e-04</internalNodes>
      <leafValues>
        -2.8755861520767212e-01 7.6104395091533661e-02</leafValues></_>
    <_>
      <internalNodes>
        0 -1 96505 -7.5697200372815132e-04</internalNodes>
      <leafValues>
        1.5204435586929321e-01 -1.2293909490108490e-01</leafValues></_>
    <_>
      <internalNodes>
        0 -1 9319 -8.1807993352413177e-02</internalNodes>
      <leafValues>
        -4.2144364118576050e-01 4.8700250685214996e-02</leafValues></_>
    <_>
      <internalNodes>
        0 -1 151622 -2.3474651970900595e-04</internalNodes>
      <leafValues>
        1.4502342045307159e-01 -1.2214787304401398e-01</leafValues></_>
    <_>
      <internalNodes>
        0 -1 162099 -7.1967988333199173e-05</internalNodes>
      <leafValues>
        1.7900684475898743e-01 -9.9922716617584229e-02</leafValues></_>
    <_>
      <internalNodes>
        0 -1 154650 2.0676569547504187e-03</internalNodes>
      <leafValues>
        -8.7683938443660736e-02 2.3628968000411987e-01</leafValues></_>
    <_>
      <internalNodes>
        0 -1 13186 -8.1325392238795757e-04</internalNodes>
      <leafValues>
        -3.2691812515258789e-01 5.5398829281330109e-02</leafValues></_>
    <_>
      <internalNodes>
        0 -1 56142 -4.0489932871423662e-04</internalNodes>
      <leafValues>
        1.3477638363838196e-01 -1.3335971534252167e-01</leafValues></_>
    <_>
      <internalNodes>
        0 -1 121261 -1.3060002820566297e-03</internalNodes>
      <leafValues>
        3.2319268584251404e-01 -5.5973295122385025e-02</leafValues></_>
    <_>
      <internalNodes>
        0 -1 151827 -3.9845512219471857e-05</internalNodes>
      <leafValues>
        -1.8995806574821472e-01 9.4983503222465515e-02</leafValues></_>
    <_>
      <internalNodes>
        0 -1 97051 8.6406164336949587e-04</internalNodes>
      <leafValues>
        8.3697967231273651e-02 -2.3304924368858337e-01</leafValues></_>
    <_>
      <internalNodes>
        0 -1 139156 4.8393773613497615e-04</internalNodes>
      <leafValues>
        5.9320706874132156e-02 -2.7931395173072815e-01</leafValues></_>
    <_>
      <internalNodes>
        0 -1 161964 -6.3250297680497169e-03</internalNodes>
      <leafValues>
        -7.0065081119537354e-01 2.0409243181347847e-02</leafValues></_>
    <_>
      <internalNodes>
        0 -1 98402 3.1990686693461612e-05</internalNodes>
      <leafValues>
        -1.4130432903766632e-01 1.0501530766487122e-01</leafValues></_>
    <_>
      <internalNodes>
        0 -1 110237 -9.1440236428752542e-04</internalNodes>
      <leafValues>
        1.5508809685707092e-01 -9.7235195338726044e-02</leafValues></_>
    <_>
      <internalNodes>
        0 -1 146058 8.9601823128759861e-04</internalNodes>
      <leafValues>
        -9.5146887004375458e-02 1.5686185657978058e-01</leafValues></_>
    <_>
      <internalNodes>
        0 -1 402 8.7030418217182159e-03</internalNodes>
      <leafValues>
        6.6929318010807037e-02 -2.3562514781951904e-01</leafValues></_>
    <_>
      <internalNodes>
        0 -1 39699 -7.6857465319335461e-03</internalNodes>
      <leafValues>
        2.5964656472206116e-01 -7.1203045547008514e-02</leafValues></_>
    <_>
      <internalNodes>
        0 -1 155184 -2.4532591924071312e-03</internalNodes>
      <leafValues>
        -5.7836318016052246e-01 2.3890966549515724e-02</leafValues></_>
    <_>
      <internalNodes>
        0 -1 59510 1.0105711407959461e-03</internalNodes>
      <leafValues>
        -6.9913372397422791e-02 2.3172378540039063e-01</leafValues></_>
    <_>
      <internalNodes>
        0 -1 155491 -8.9664142578840256e-03</internalNodes>
      <leafValues>
        -3.6308568716049194e-01 4.5990262180566788e-02</leafValues></_>
    <_>
      <internalNodes>
        0 -1 35418 2.0294764544814825e-03</internalNodes>
      <leafValues>
        -6.7246153950691223e-02 2.3338654637336731e-01</leafValues></_>
    <_>
      <internalNodes>
        0 -1 99898 -1.6221806406974792e-01</internalNodes>
      <leafValues>
        -6.2353265285491943e-01 2.5881128385663033e-02</leafValues></_>
    <_>
      <internalNodes>
        0 -1 110177 4.6633591409772635e-04</internalNodes>
      <leafValues>
        -1.0417780280113220e-01 1.7517428100109100e-01</leafValues></_>
    <_>
      <internalNodes>
        0 -1 28222 1.0760478675365448e-01</internalNodes>
      <leafValues>
        -5.7643137872219086e-02 2.5250989198684692e-01</leafValues></_>
    <_>
      <internalNodes>
        0 -1 38222 -4.8735775053501129e-03</internalNodes>
      <leafValues>
        -2.8232288360595703e-01 5.9012018144130707e-02</leafValues></_>
    <_>
      <internalNodes>
        0 -1 73177 -3.6069126799702644e-03</internalNodes>
      <leafValues>
        1.5990088880062103e-01 -1.0087904334068298e-01</leafValues></_>
    <_>
      <internalNodes>
        0 -1 25791 1.3306622859090567e-03</internalNodes>
      <leafValues>
        6.0907498002052307e-02 -2.5967088341712952e-01</leafValues></_>
    <_>
      <internalNodes>
        0 -1 37632 2.9773038113489747e-04</internalNodes>
      <leafValues>
        -1.1528424918651581e-01 1.6431209444999695e-01</leafValues></_>
    <_>
      <internalNodes>
        0 -1 112555 -2.3258090019226074e-02</internalNodes>
      <leafValues>
        2.4532780051231384e-01 -6.7175142467021942e-02</leafValues></_>
    <_>
      <internalNodes>
        0 -1 88844 3.0599306337535381e-03</internalNodes>
      <leafValues>
        -1.8688665330410004e-01 1.1396139860153198e-01</leafValues></_>
    <_>
      <internalNodes>
        0 -1 127845 -9.0758991427719593e-04</internalNodes>
      <leafValues>
        3.7863546609878540e-01 -4.4509418308734894e-02</leafValues></_>
    <_>
      <internalNodes>
        0 -1 98092 2.7829582904814743e-05</internalNodes>
      <leafValues>
        -1.2387988716363907e-01 1.3246344029903412e-01</leafValues></_>
    <_>
      <internalNodes>
        0 -1 89986 -1.0149531590286642e-04</internalNodes>
      <leafValues>
        -1.5466183423995972e-01 1.0234233736991882e-01</leafValues></_>
    <_>
      <internalNodes>
        0 -1 145305 4.7951452434062958e-02</internalNodes>
      <leafValues>
        1.5753861516714096e-02 -7.6329153776168823e-01</leafValues></_>
    <_>
      <internalNodes>
        0 -1 48446 3.6044321022927761e-03</internalNodes>
      <leafValues>
        -8.4024511277675629e-02 1.7919312417507172e-01</leafValues></_>
    <_>
      <internalNodes>
        0 -1 98806 4.6065174043178558e-02</internalNodes>
      <leafValues>
        2.5127690285444260e-02 -6.5408378839492798e-01</leafValues></_>
    <_>
      <internalNodes>
        0 -1 79068 -6.4367838203907013e-03</internalNodes>
      <leafValues>
        1.9959062337875366e-01 -8.9379042387008667e-02</leafValues></_>
    <_>
      <internalNodes>
        0 -1 25267 -2.6186853647232056e-03</internalNodes>
      <leafValues>
        -4.6059700846672058e-01 3.6210477352142334e-02</leafValues></_>
    <_>
      <internalNodes>
        0 -1 121144 -2.6247125788358971e-05</internalNodes>
      <leafValues>
        1.2334568798542023e-01 -1.2276147305965424e-01</leafValues></_>
    <_>
      <internalNodes>
        0 -1 76296 1.0413744486868382e-02</internalNodes>
      <leafValues>
        2.0920056849718094e-02 -7.8882002830505371e-01</leafValues></_>
    <_>
      <internalNodes>
        0 -1 68582 -8.9852593373507261e-04</internalNodes>
      <leafValues>
        1.5952549874782562e-01 -9.5863349735736847e-02</leafValues></_>
    <_>
      <internalNodes>
        0 -1 121511 -2.4348296574316919e-04</internalNodes>
      <leafValues>
        -1.3985833525657654e-01 1.1071131378412247e-01</leafValues></_>
    <_>
      <internalNodes>
        0 -1 16359 1.5419079922139645e-02</internalNodes>
      <leafValues>
        2.5191389024257660e-02 -6.5028107166290283e-01</leafValues></_>
    <_>
      <internalNodes>
        0 -1 19594 1.3111855369061232e-03</internalNodes>
      <leafValues>
        -9.5622070133686066e-02 1.7342263460159302e-01</leafValues></_>
    <_>
      <internalNodes>
        0 -1 161942 2.3198190610855818e-03</internalNodes>
      <leafValues>
        3.8148771971464157e-02 -4.1126918792724609e-01</leafValues></_>
    <_>
      <internalNodes>
        0 -1 13378 4.1743228211998940e-04</internalNodes>
      <leafValues>
        -1.0163667052984238e-01 1.4929240942001343e-01</leafValues></_>
    <_>
      <internalNodes>
        0 -1 95001 1.3882559537887573e-01</internalNodes>
      <leafValues>
        -3.0241152271628380e-02 6.3259971141815186e-01</leafValues></_>
    <_>
      <internalNodes>
        0 -1 13297 -6.3934014178812504e-04</internalNodes>
      <leafValues>
        -3.6776852607727051e-01 4.7207985073328018e-02</leafValues></_>
    <_>
      <internalNodes>
        0 -1 159070 2.0055763423442841e-02</internalNodes>
      <leafValues>
        -4.8902548849582672e-02 3.3500704169273376e-01</leafValues></_>
    <_>
      <internalNodes>
        0 -1 160547 -1.1535314843058586e-03</internalNodes>
      <leafValues>
        1.4401037991046906e-01 -1.1619204282760620e-01</leafValues></_>
    <_>
      <internalNodes>
        0 -1 157505 -3.6577449645847082e-04</internalNodes>
      <leafValues>
        -2.0416152477264404e-01 8.0002166330814362e-02</leafValues></_>
    <_>
      <internalNodes>
        0 -1 157572 6.6373869776725769e-04</internalNodes>
      <leafValues>
        -8.9585579931735992e-02 1.8820552527904510e-01</leafValues></_>
    <_>
      <internalNodes>
        0 -1 98189 3.8270179182291031e-02</internalNodes>
      <leafValues>
        -3.1033964827656746e-02 5.6397575139999390e-01</leafValues></_>
    <_>
      <internalNodes>
        0 -1 60260 1.2162245548097417e-04</internalNodes>
      <leafValues>
        6.9393508136272430e-02 -2.2886773943901062e-01</leafValues></_>
    <_>
      <internalNodes>
        0 -1 109619 6.1080437153577805e-03</internalNodes>
      <leafValues>
        -7.5945489108562469e-02 2.1546502411365509e-01</leafValues></_>
    <_>
      <internalNodes>
        0 -1 68489 -1.4239737391471863e-01</internalNodes>
      <leafValues>
        4.6703666448593140e-01 -3.1295727938413620e-02</leafValues></_>
    <_>
      <internalNodes>
        0 -1 13238 -4.1721377521753311e-02</internalNodes>
      <leafValues>
        2.8734153509140015e-01 -5.9197068214416504e-02</leafValues></_>
    <_>
      <internalNodes>
        0 -1 161332 -3.9662858471274376e-03</internalNodes>
      <leafValues>
        -8.5055774450302124e-01 2.1412773057818413e-02</leafValues></_>
    <_>
      <internalNodes>
        0 -1 121323 -6.5302173607051373e-04</internalNodes>
      <leafValues>
        1.8651528656482697e-01 -8.8795736432075500e-02</leafValues></_>
    <_>
      <internalNodes>
        0 -1 11118 2.1771498024463654e-02</internalNodes>
      <leafValues>
        6.5077818930149078e-02 -2.4839968979358673e-01</leafValues></_>
    <_>
      <internalNodes>
        0 -1 157584 -5.9152569156140089e-04</internalNodes>
      <leafValues>
        -5.2435481548309326e-01 2.8042363002896309e-02</leafValues></_>
    <_>
      <internalNodes>
        0 -1 12065 -1.6144182300195098e-03</internalNodes>
      <leafValues>
        1.5661223232746124e-01 -1.0403557121753693e-01</leafValues></_>
    <_>
      <internalNodes>
        0 -1 2355 1.5121240168809891e-02</internalNodes>
      <leafValues>
        3.7367634475231171e-02 -4.1580092906951904e-01</leafValues></_>
    <_>
      <internalNodes>
        0 -1 158768 1.8970384262502193e-03</internalNodes>
      <leafValues>
        7.7625691890716553e-02 -1.9839154183864594e-01</leafValues></_>
    <_>
      <internalNodes>
        0 -1 101167 -1.3201390393078327e-03</internalNodes>
      <leafValues>
        1.8311235308647156e-01 -8.7106168270111084e-02</leafValues></_>
    <_>
      <internalNodes>
        0 -1 100599 6.1352108605206013e-04</internalNodes>
      <leafValues>
        -1.2148323655128479e-01 1.5982076525688171e-01</leafValues></_></weakClassifiers></stage16>
</opencv_storage>
