<?xml version="1.0"?>
<opencv_storage>
<stage0>
  <maxWeakCount>10</maxWeakCount>
  <stageThreshold>-1.3562941551208496e+00</stageThreshold>
  <weakClassifiers>
    <_>
      <internalNodes>
        0 -1 70526 2.1676227450370789e-02</internalNodes>
      <leafValues>
        -3.2584270834922791e-01 7.5365668535232544e-01</leafValues></_>
    <_>
      <internalNodes>
        0 -1 57151 -3.9304889738559723e-02</internalNodes>
      <leafValues>
        6.0857468843460083e-01 -3.6256411671638489e-01</leafValues></_>
    <_>
      <internalNodes>
        0 -1 60358 3.3862632699310780e-04</internalNodes>
      <leafValues>
        2.6061412692070007e-01 -7.6919198036193848e-01</leafValues></_>
    <_>
      <internalNodes>
        0 -1 60363 -9.2844315804541111e-04</internalNodes>
      <leafValues>
        -7.4462050199508667e-01 2.3809048533439636e-01</leafValues></_>
    <_>
      <internalNodes>
        0 -1 60421 3.2203726004809141e-04</internalNodes>
      <leafValues>
        2.8292334079742432e-01 -7.3235070705413818e-01</leafValues></_>
    <_>
      <internalNodes>
        0 -1 90349 -3.6771625280380249e-02</internalNodes>
      <leafValues>
        5.5593574047088623e-01 -3.4843993186950684e-01</leafValues></_>
    <_>
      <internalNodes>
        0 -1 161150 5.8426999021321535e-04</internalNodes>
      <leafValues>
        2.8642427921295166e-01 -6.5563219785690308e-01</leafValues></_>
    <_>
      <internalNodes>
        0 -1 161183 -6.9181493017822504e-04</internalNodes>
      <leafValues>
        -7.5819206237792969e-01 1.8538029491901398e-01</leafValues></_>
    <_>
      <internalNodes>
        0 -1 161177 2.9348075622692704e-04</internalNodes>
      <leafValues>
        2.1927408874034882e-01 -6.3453733921051025e-01</leafValues></_>
    <_>
      <internalNodes>
        0 -1 133749 -6.2108889687806368e-04</internalNodes>
      <leafValues>
        -7.2585564851760864e-01 1.7181013524532318e-01</leafValues></_></weakClassifiers></stage0>
</opencv_storage>
