<?xml version="1.0"?>
<opencv_storage>
<stage8>
  <maxWeakCount>48</maxWeakCount>
  <stageThreshold>-1.0643514394760132e+00</stageThreshold>
  <weakClassifiers>
    <_>
      <internalNodes>
        0 -1 127850 1.6047002281993628e-03</internalNodes>
      <leafValues>
        -2.1984837949275970e-01 3.6544850468635559e-01</leafValues></_>
    <_>
      <internalNodes>
        0 -1 99190 -5.0756961107254028e-02</internalNodes>
      <leafValues>
        3.3265951275825500e-01 -1.6726803779602051e-01</leafValues></_>
    <_>
      <internalNodes>
        0 -1 77283 -2.4418838322162628e-01</internalNodes>
      <leafValues>
        4.4191914796829224e-01 -1.1434831470251083e-01</leafValues></_>
    <_>
      <internalNodes>
        0 -1 13006 1.3814473059028387e-03</internalNodes>
      <leafValues>
        8.3895981311798096e-02 -4.6110770106315613e-01</leafValues></_>
    <_>
      <internalNodes>
        0 -1 144030 5.4986827308312058e-04</internalNodes>
      <leafValues>
        8.6721114814281464e-02 -6.2050759792327881e-01</leafValues></_>
    <_>
      <internalNodes>
        0 -1 49399 7.8793650027364492e-04</internalNodes>
      <leafValues>
        8.7460905313491821e-02 -5.0354707241058350e-01</leafValues></_>
    <_>
      <internalNodes>
        0 -1 147906 3.7348121404647827e-03</internalNodes>
      <leafValues>
        -3.0362907052040100e-01 1.3183602690696716e-01</leafValues></_>
    <_>
      <internalNodes>
        0 -1 151882 -7.4006896466016769e-04</internalNodes>
      <leafValues>
        -4.2234981060028076e-01 8.9483387768268585e-02</leafValues></_>
    <_>
      <internalNodes>
        0 -1 154165 -9.9261347204446793e-03</internalNodes>
      <leafValues>
        2.9669329524040222e-01 -1.4614154398441315e-01</leafValues></_>
    <_>
      <internalNodes>
        0 -1 98569 -5.0265397876501083e-03</internalNodes>
      <leafValues>
        3.6326500773429871e-01 -1.1593058705329895e-01</leafValues></_>
    <_>
      <internalNodes>
        0 -1 121334 2.1091096277814358e-04</internalNodes>
      <leafValues>
        9.2140100896358490e-02 -3.8556534051895142e-01</leafValues></_>
    <_>
      <internalNodes>
        0 -1 112270 -1.2688884511590004e-02</internalNodes>
      <leafValues>
        1.6578003764152527e-01 -2.3459780216217041e-01</leafValues></_>
    <_>
      <internalNodes>
        0 -1 143136 1.5505447983741760e-02</internalNodes>
      <leafValues>
        -6.8964913487434387e-02 4.7579589486122131e-01</leafValues></_>
    <_>
      <internalNodes>
        0 -1 162320 -1.5167860547080636e-03</internalNodes>
      <leafValues>
        -3.2412636280059814e-01 1.1086470633745193e-01</leafValues></_>
    <_>
      <internalNodes>
        0 -1 13177 -6.0798472259193659e-04</internalNodes>
      <leafValues>
        -4.1784363985061646e-01 8.2938767969608307e-02</leafValues></_>
    <_>
      <internalNodes>
        0 -1 75770 -2.2029029205441475e-03</internalNodes>
      <leafValues>
        3.6958152055740356e-01 -9.3946628272533417e-02</leafValues></_>
    <_>
      <internalNodes>
        0 -1 12281 -3.5641579888761044e-03</internalNodes>
      <leafValues>
        2.2459422051906586e-01 -1.5770047903060913e-01</leafValues></_>
    <_>
      <internalNodes>
        0 -1 161154 -1.5990380197763443e-03</internalNodes>
      <leafValues>
        -4.9622473120689392e-01 5.0657667219638824e-02</leafValues></_>
    <_>
      <internalNodes>
        0 -1 105373 3.1701521947979927e-03</internalNodes>
      <leafValues>
        -9.2250674962997437e-02 3.8014283776283264e-01</leafValues></_>
    <_>
      <internalNodes>
        0 -1 102155 -2.6420269161462784e-02</internalNodes>
      <leafValues>
        1.2635551393032074e-01 -2.5609385967254639e-01</leafValues></_>
    <_>
      <internalNodes>
        0 -1 43757 -1.2823771685361862e-03</internalNodes>
      <leafValues>
        3.1131216883659363e-01 -1.0141640901565552e-01</leafValues></_>
    <_>
      <internalNodes>
        0 -1 121334 -1.5559715393465012e-04</internalNodes>
      <leafValues>
        -3.3142516016960144e-01 9.6450179815292358e-02</leafValues></_>
    <_>
      <internalNodes>
        0 -1 86665 -1.5396129339933395e-02</internalNodes>
      <leafValues>
        4.3641933798789978e-01 -6.8995118141174316e-02</leafValues></_>
    <_>
      <internalNodes>
        0 -1 162286 -1.0601950809359550e-02</internalNodes>
      <leafValues>
        -4.9263852834701538e-01 6.8277426064014435e-02</leafValues></_>
    <_>
      <internalNodes>
        0 -1 157018 -1.7157151596620679e-03</internalNodes>
      <leafValues>
        3.0902841687202454e-01 -9.6442177891731262e-02</leafValues></_>
    <_>
      <internalNodes>
        0 -1 49556 -4.7211933997459710e-04</internalNodes>
      <leafValues>
        -2.8003910183906555e-01 1.1116013675928116e-01</leafValues></_>
    <_>
      <internalNodes>
        0 -1 127764 3.2873563468456268e-03</internalNodes>
      <leafValues>
        -7.0076093077659607e-02 4.4338619709014893e-01</leafValues></_>
    <_>
      <internalNodes>
        0 -1 60358 2.7987282373942435e-04</internalNodes>
      <leafValues>
        6.8351507186889648e-02 -4.5821592211723328e-01</leafValues></_>
    <_>
      <internalNodes>
        0 -1 58507 5.5786978919059038e-04</internalNodes>
      <leafValues>
        -9.8963879048824310e-02 3.0243945121765137e-01</leafValues></_>
    <_>
      <internalNodes>
        0 -1 101696 1.4924437273293734e-03</internalNodes>
      <leafValues>
        -1.2466260045766830e-01 2.3688431084156036e-01</leafValues></_>
    <_>
      <internalNodes>
        0 -1 32035 -1.2860946357250214e-02</internalNodes>
      <leafValues>
        3.2131135463714600e-01 -8.7624900043010712e-02</leafValues></_>
    <_>
      <internalNodes>
        0 -1 26031 -1.1272543668746948e-01</internalNodes>
      <leafValues>
        -7.5655329227447510e-01 3.8732543587684631e-02</leafValues></_>
    <_>
      <internalNodes>
        0 -1 35923 1.0045822709798813e-02</internalNodes>
      <leafValues>
        -1.0942946374416351e-01 2.8098824620246887e-01</leafValues></_>
    <_>
      <internalNodes>
        0 -1 12260 -4.8333890736103058e-03</internalNodes>
      <leafValues>
        -4.7680324316024780e-01 6.1261251568794250e-02</leafValues></_>
    <_>
      <internalNodes>
        0 -1 95294 -7.1051409468054771e-03</internalNodes>
      <leafValues>
        3.0984565615653992e-01 -1.0029711574316025e-01</leafValues></_>
    <_>
      <internalNodes>
        0 -1 142724 -1.1612825095653534e-02</internalNodes>
      <leafValues>
        1.7274037003517151e-01 -1.6909283399581909e-01</leafValues></_>
    <_>
      <internalNodes>
        0 -1 13034 7.1320112328976393e-04</internalNodes>
      <leafValues>
        -1.8763233721256256e-01 1.5621966123580933e-01</leafValues></_>
    <_>
      <internalNodes>
        0 -1 129931 -1.0280234739184380e-02</internalNodes>
      <leafValues>
        2.4284802377223969e-01 -1.1373288929462433e-01</leafValues></_>
    <_>
      <internalNodes>
        0 -1 156131 2.5994456373155117e-03</internalNodes>
      <leafValues>
        -1.3196770846843719e-01 2.4769455194473267e-01</leafValues></_>
    <_>
      <internalNodes>
        0 -1 152769 -3.1826533377170563e-02</internalNodes>
      <leafValues>
        2.5559449195861816e-01 -1.0335628688335419e-01</leafValues></_>
    <_>
      <internalNodes>
        0 -1 159740 3.6642907070927322e-04</internalNodes>
      <leafValues>
        1.2503799796104431e-01 -2.1006000041961670e-01</leafValues></_>
    <_>
      <internalNodes>
        0 -1 23656 -7.0516020059585571e-04</internalNodes>
      <leafValues>
        2.2158522903919220e-01 -1.1592666059732437e-01</leafValues></_>
    <_>
      <internalNodes>
        0 -1 9165 1.0547816753387451e-01</internalNodes>
      <leafValues>
        -7.3039039969444275e-02 3.5778421163558960e-01</leafValues></_>
    <_>
      <internalNodes>
        0 -1 10287 -1.6839284449815750e-02</internalNodes>
      <leafValues>
        1.3710665702819824e-01 -2.0452882349491119e-01</leafValues></_>
    <_>
      <internalNodes>
        0 -1 22295 2.9701162129640579e-02</internalNodes>
      <leafValues>
        -8.7072364985942841e-02 3.2584068179130554e-01</leafValues></_>
    <_>
      <internalNodes>
        0 -1 80746 3.7011661333963275e-04</internalNodes>
      <leafValues>
        6.9978274405002594e-02 -4.1974502801895142e-01</leafValues></_>
    <_>
      <internalNodes>
        0 -1 80693 -1.3591765891760588e-03</internalNodes>
      <leafValues>
        -5.9856736660003662e-01 4.8523001372814178e-02</leafValues></_>
    <_>
      <internalNodes>
        0 -1 159164 1.8832851201295853e-02</internalNodes>
      <leafValues>
        -7.4746727943420410e-02 4.0163785219192505e-01</leafValues></_></weakClassifiers></stage8>
</opencv_storage>
