<?xml version="1.0"?>
<opencv_storage>
<stage12>
  <maxWeakCount>67</maxWeakCount>
  <stageThreshold>-1.0455183982849121e+00</stageThreshold>
  <weakClassifiers>
    <_>
      <internalNodes>
        0 -1 13073 6.7220851778984070e-03</internalNodes>
      <leafValues>
        -1.7801047861576080e-01 3.5454019904136658e-01</leafValues></_>
    <_>
      <internalNodes>
        0 -1 90539 -7.4970476329326630e-02</internalNodes>
      <leafValues>
        2.9250034689903259e-01 -1.7145664989948273e-01</leafValues></_>
    <_>
      <internalNodes>
        0 -1 126221 -2.5237733498215675e-02</internalNodes>
      <leafValues>
        2.5445166230201721e-01 -1.9658678770065308e-01</leafValues></_>
    <_>
      <internalNodes>
        0 -1 66580 -1.1926198378205299e-02</internalNodes>
      <leafValues>
        3.7594348192214966e-01 -8.9917913079261780e-02</leafValues></_>
    <_>
      <internalNodes>
        0 -1 162309 -5.3343782201409340e-03</internalNodes>
      <leafValues>
        -4.5279097557067871e-01 4.5439895242452621e-02</leafValues></_>
    <_>
      <internalNodes>
        0 -1 11552 -1.1444602161645889e-02</internalNodes>
      <leafValues>
        2.9810193181037903e-01 -9.4735495746135712e-02</leafValues></_>
    <_>
      <internalNodes>
        0 -1 113570 7.7421357855200768e-03</internalNodes>
      <leafValues>
        -5.6341122835874557e-02 7.0522302389144897e-01</leafValues></_>
    <_>
      <internalNodes>
        0 -1 37870 -5.6691102683544159e-02</internalNodes>
      <leafValues>
        -6.1243087053298950e-01 6.0249693691730499e-02</leafValues></_>
    <_>
      <internalNodes>
        0 -1 13375 -5.2207894623279572e-04</internalNodes>
      <leafValues>
        -3.4348094463348389e-01 8.3157181739807129e-02</leafValues></_>
    <_>
      <internalNodes>
        0 -1 58880 1.6462567145936191e-04</internalNodes>
      <leafValues>
        -1.1313445121049881e-01 2.2742910683155060e-01</leafValues></_>
    <_>
      <internalNodes>
        0 -1 60421 -7.3119159787893295e-04</internalNodes>
      <leafValues>
        -5.9412485361099243e-01 2.6584023609757423e-02</leafValues></_>
    <_>
      <internalNodes>
        0 -1 98180 -8.2129798829555511e-03</internalNodes>
      <leafValues>
        1.5477734804153442e-01 -1.6815042495727539e-01</leafValues></_>
    <_>
      <internalNodes>
        0 -1 158584 -4.0051182731986046e-03</internalNodes>
      <leafValues>
        2.4435941874980927e-01 -1.0427187383174896e-01</leafValues></_>
    <_>
      <internalNodes>
        0 -1 94568 -6.6914618946611881e-03</internalNodes>
      <leafValues>
        2.5108817219734192e-01 -9.7691059112548828e-02</leafValues></_>
    <_>
      <internalNodes>
        0 -1 13053 -3.7929064128547907e-03</internalNodes>
      <leafValues>
        -5.4859739542007446e-01 4.9441151320934296e-02</leafValues></_>
    <_>
      <internalNodes>
        0 -1 112875 -2.1737902425229549e-03</internalNodes>
      <leafValues>
        2.1738538146018982e-01 -1.1107689142227173e-01</leafValues></_>
    <_>
      <internalNodes>
        0 -1 122271 1.0759383440017700e-01</internalNodes>
      <leafValues>
        -3.5126518458127975e-02 6.9627857208251953e-01</leafValues></_>
    <_>
      <internalNodes>
        0 -1 64941 -1.5599995385855436e-03</internalNodes>
      <leafValues>
        2.2763141989707947e-01 -1.0010524094104767e-01</leafValues></_>
    <_>
      <internalNodes>
        0 -1 121044 1.2429475318640471e-03</internalNodes>
      <leafValues>
        -6.5550565719604492e-02 3.2854464650154114e-01</leafValues></_>
    <_>
      <internalNodes>
        0 -1 162086 -3.0521422741003335e-04</internalNodes>
      <leafValues>
        -3.9234504103660583e-01 6.0629166662693024e-02</leafValues></_>
    <_>
      <internalNodes>
        0 -1 160077 -1.2102723303542007e-05</internalNodes>
      <leafValues>
        1.5660718083381653e-01 -1.5675911307334900e-01</leafValues></_>
    <_>
      <internalNodes>
        0 -1 10216 -2.9374912381172180e-02</internalNodes>
      <leafValues>
        -5.6199473142623901e-01 3.9555326104164124e-02</leafValues></_>
    <_>
      <internalNodes>
        0 -1 121176 -1.2359224492684007e-03</internalNodes>
      <leafValues>
        1.8966899812221527e-01 -1.2531450390815735e-01</leafValues></_>
    <_>
      <internalNodes>
        0 -1 101622 1.1691870167851448e-02</internalNodes>
      <leafValues>
        -5.8882355690002441e-02 3.7981700897216797e-01</leafValues></_>
    <_>
      <internalNodes>
        0 -1 69460 -5.8253090828657150e-02</internalNodes>
      <leafValues>
        4.8753327131271362e-01 -4.6311300247907639e-02</leafValues></_>
    <_>
      <internalNodes>
        0 -1 9587 -4.9372851848602295e-02</internalNodes>
      <leafValues>
        -4.7528594732284546e-01 5.2162460982799530e-02</leafValues></_>
    <_>
      <internalNodes>
        0 -1 140842 5.3117275238037109e-03</internalNodes>
      <leafValues>
        -1.0598123073577881e-01 2.1793988347053528e-01</leafValues></_>
    <_>
      <internalNodes>
        0 -1 27207 -2.0009595900774002e-02</internalNodes>
      <leafValues>
        1.8330341577529907e-01 -1.2672775983810425e-01</leafValues></_>
    <_>
      <internalNodes>
        0 -1 162288 -1.7997710965573788e-03</internalNodes>
      <leafValues>
        -6.1601328849792480e-01 3.8317505270242691e-02</leafValues></_>
    <_>
      <internalNodes>
        0 -1 12580 -9.6667511388659477e-03</internalNodes>
      <leafValues>
        2.5487723946571350e-01 -9.1386213898658752e-02</leafValues></_>
    <_>
      <internalNodes>
        0 -1 139156 6.1902392189949751e-04</internalNodes>
      <leafValues>
        6.5639935433864594e-02 -3.5007840394973755e-01</leafValues></_>
    <_>
      <internalNodes>
        0 -1 25873 -2.9427386820316315e-02</internalNodes>
      <leafValues>
        -8.3329558372497559e-01 2.3802271112799644e-02</leafValues></_>
    <_>
      <internalNodes>
        0 -1 4784 -2.9861417412757874e-01</internalNodes>
      <leafValues>
        -6.8913727998733521e-01 2.5898456573486328e-02</leafValues></_>
    <_>
      <internalNodes>
        0 -1 78348 -3.0383849516510963e-03</internalNodes>
      <leafValues>
        1.5287475287914276e-01 -1.4315876364707947e-01</leafValues></_>
    <_>
      <internalNodes>
        0 -1 161985 4.9309479072690010e-04</internalNodes>
      <leafValues>
        9.4396300613880157e-02 -2.4029844999313354e-01</leafValues></_>
    <_>
      <internalNodes>
        0 -1 157652 2.4461485445499420e-03</internalNodes>
      <leafValues>
        -8.9179068803787231e-02 2.5006261467933655e-01</leafValues></_>
    <_>
      <internalNodes>
        0 -1 80254 -6.3328184187412262e-03</internalNodes>
      <leafValues>
        2.4017000198364258e-01 -1.0759533941745758e-01</leafValues></_>
    <_>
      <internalNodes>
        0 -1 161054 -8.5403565317392349e-03</internalNodes>
      <leafValues>
        -7.2161591053009033e-01 3.0343197286128998e-02</leafValues></_>
    <_>
      <internalNodes>
        0 -1 78547 -4.3005114421248436e-03</internalNodes>
      <leafValues>
        2.1883253753185272e-01 -1.0458615422248840e-01</leafValues></_>
    <_>
      <internalNodes>
        0 -1 34835 -7.3335766792297363e-03</internalNodes>
      <leafValues>
        2.5851747393608093e-01 -9.8021619021892548e-02</leafValues></_>
    <_>
      <internalNodes>
        0 -1 47872 -2.7740374207496643e-03</internalNodes>
      <leafValues>
        4.0132045745849609e-01 -5.0808921456336975e-02</leafValues></_>
    <_>
      <internalNodes>
        0 -1 55677 -1.0570270940661430e-02</internalNodes>
      <leafValues>
        1.9954322278499603e-01 -1.0294277966022491e-01</leafValues></_>
    <_>
      <internalNodes>
        0 -1 87677 -1.6750786453485489e-02</internalNodes>
      <leafValues>
        1.8071071803569794e-01 -1.3826408982276917e-01</leafValues></_>
    <_>
      <internalNodes>
        0 -1 114453 -2.4746451526880264e-02</internalNodes>
      <leafValues>
        3.0234798789024353e-01 -7.7123850584030151e-02</leafValues></_>
    <_>
      <internalNodes>
        0 -1 131897 -1.1271811090409756e-03</internalNodes>
      <leafValues>
        1.9779434800148010e-01 -1.0781048238277435e-01</leafValues></_>
    <_>
      <internalNodes>
        0 -1 67140 -1.1880658566951752e-02</internalNodes>
      <leafValues>
        2.9915228486061096e-01 -7.7350161969661713e-02</leafValues></_>
    <_>
      <internalNodes>
        0 -1 144062 1.1372508481144905e-02</internalNodes>
      <leafValues>
        -5.2505090832710266e-02 3.5538032650947571e-01</leafValues></_>
    <_>
      <internalNodes>
        0 -1 75352 -1.1871433816850185e-02</internalNodes>
      <leafValues>
        1.7570446431636810e-01 -1.1992511153221130e-01</leafValues></_>
    <_>
      <internalNodes>
        0 -1 109327 -3.1743149738758802e-03</internalNodes>
      <leafValues>
        2.2914971411228180e-01 -9.5490373671054840e-02</leafValues></_>
    <_>
      <internalNodes>
        0 -1 162331 1.3607223518192768e-03</internalNodes>
      <leafValues>
        4.8216316848993301e-02 -4.3894240260124207e-01</leafValues></_>
    <_>
      <internalNodes>
        0 -1 98640 3.5218661651015282e-04</internalNodes>
      <leafValues>
        4.6819906681776047e-02 -4.3459120392799377e-01</leafValues></_>
    <_>
      <internalNodes>
        0 -1 92748 -7.8099846839904785e-02</internalNodes>
      <leafValues>
        -6.2926685810089111e-01 3.1549211591482162e-02</leafValues></_>
    <_>
      <internalNodes>
        0 -1 70480 -1.4110231772065163e-02</internalNodes>
      <leafValues>
        2.0713606476783752e-01 -1.0550579428672791e-01</leafValues></_>
    <_>
      <internalNodes>
        0 -1 157279 -2.8257323428988457e-03</internalNodes>
      <leafValues>
        4.0026381611824036e-01 -5.0259962677955627e-02</leafValues></_>
    <_>
      <internalNodes>
        0 -1 155438 -4.6258410438895226e-03</internalNodes>
      <leafValues>
        -6.7293119430541992e-01 3.1454816460609436e-02</leafValues></_>
    <_>
      <internalNodes>
        0 -1 138346 -3.7794895470142365e-03</internalNodes>
      <leafValues>
        2.7012851834297180e-01 -7.9841189086437225e-02</leafValues></_>
    <_>
      <internalNodes>
        0 -1 145628 -5.1066360902041197e-04</internalNodes>
      <leafValues>
        2.7233925461769104e-01 -7.3419690132141113e-02</leafValues></_>
    <_>
      <internalNodes>
        0 -1 144550 8.1608974142000079e-05</internalNodes>
      <leafValues>
        1.1189072579145432e-01 -1.8830716609954834e-01</leafValues></_>
    <_>
      <internalNodes>
        0 -1 139229 -6.0216110432520509e-04</internalNodes>
      <leafValues>
        -4.5971718430519104e-01 4.5191857963800430e-02</leafValues></_>
    <_>
      <internalNodes>
        0 -1 9510 -1.8922477960586548e-02</internalNodes>
      <leafValues>
        2.7965018153190613e-01 -7.5780965387821198e-02</leafValues></_>
    <_>
      <internalNodes>
        0 -1 13586 1.6332233324646950e-02</internalNodes>
      <leafValues>
        -7.5800962746143341e-02 2.8504827618598938e-01</leafValues></_>
    <_>
      <internalNodes>
        0 -1 141741 4.7557204961776733e-03</internalNodes>
      <leafValues>
        -9.4460107386112213e-02 2.1805228292942047e-01</leafValues></_>
    <_>
      <internalNodes>
        0 -1 106572 3.9051924250088632e-04</internalNodes>
      <leafValues>
        8.7129041552543640e-02 -2.4851021170616150e-01</leafValues></_>
    <_>
      <internalNodes>
        0 -1 82908 -1.6917602624744177e-03</internalNodes>
      <leafValues>
        2.4741779267787933e-01 -8.8974282145500183e-02</leafValues></_>
    <_>
      <internalNodes>
        0 -1 12301 6.1958115547895432e-03</internalNodes>
      <leafValues>
        4.2046546936035156e-02 -5.4511392116546631e-01</leafValues></_>
    <_>
      <internalNodes>
        0 -1 58510 9.4785110559314489e-04</internalNodes>
      <leafValues>
        -6.0373224318027496e-02 3.4713885188102722e-01</leafValues></_>
    <_>
      <internalNodes>
        0 -1 12255 -2.4192798882722855e-03</internalNodes>
      <leafValues>
        -4.5639610290527344e-01 5.0443589687347412e-02</leafValues></_></weakClassifiers></stage12>
</opencv_storage>
